{"layers":[7,10,10,6],"neurons":[[0.8990604,1.0,1.0,1.0,1.0,0.40121,0.0],[0.6942775,0.527073145,-0.393903166,-0.5220533,-0.165421367,0.321186721,-0.284747869,0.24711962,0.229067042,0.49864018],[-0.08500785,0.118216544,0.391719341,0.144627973,0.265255749,-0.143424824,0.136778831,0.5761371,-0.523780167,0.3008689],[-0.05830399,0.0402020924,0.205762759,0.4036789,-5.95223428E-05,0.504163742]],"weights":[[[0.4730847,0.49448514,-0.00728184,-0.48241663,0.2937914,0.329645872,-0.120465577],[0.2588626,0.161775336,0.256074548,-0.2506411,0.202234372,-0.04011005,-0.384785771],[-0.0552552342,-0.39160645,-0.201490343,0.260529041,0.1076079,-0.353366137,-0.312741518],[-0.0502184033,0.195182785,-0.2056902,-0.2798791,-0.155973017,-0.218462288,0.3850037],[-0.438386321,0.4146806,0.0120741725,0.128717646,-0.198175013,-0.324311733,-0.357344747],[0.0444262624,0.337204576,0.2699231,-0.203390062,-0.17588824,0.162454829,-0.004353702],[-0.0857408643,-0.0523316264,0.0470352769,-0.121258676,-0.09859389,0.0234137177,-0.4647901],[-0.04012972,0.0326138139,-0.334656715,0.3495692,0.293799281,-0.131860554,0.474373221],[0.152173385,0.08981258,-0.451408148,-0.0690060258,0.3795489,0.367498875,0.4531026],[0.107895672,-0.0396876931,0.412939429,0.267017365,-0.10194999,-0.218910635,0.438435435]],[[-0.22774452,-0.04697591,-0.476063848,0.341128469,0.287073135,-0.08497411,-0.232473433,-0.129705608,-0.33844316,0.413908839],[-0.227513492,0.452422976,-0.128871143,-0.418133736,-0.260840416,-0.3579433,-0.306763649,0.0261495709,-0.175921738,-0.426114678],[0.404932857,-0.3602494,0.0567773,-0.445006,0.2125567,-0.1285724,-0.2076897,0.499102473,0.322535276,-0.134932816],[0.2402861,0.3354485,0.07948953,-0.00118452311,0.303212166,-0.442373037,0.170436844,0.48472178,0.4599806,-0.3041594],[0.0386406779,0.352686644,-0.19130379,0.444800377,-0.494893074,-0.207934558,-0.327765822,-0.134162843,0.0197655559,0.272951961],[-0.174967349,0.292741179,0.14814423,0.357531667,-0.3402735,-0.1570763,-0.242551386,-0.257668138,-0.47907865,0.3334602],[-0.025237143,0.263612866,-0.472022653,-0.06523985,0.365562916,-0.0080176,0.057269156,-0.3419236,0.498672247,-0.3091389],[0.4498477,0.493663073,0.275526166,0.287332416,0.2052959,-0.0210152268,0.0377649665,0.3878553,0.359543085,0.433050632],[-0.10117,-0.499134421,-0.18129462,0.138130412,0.402751565,-0.331568241,0.117744982,0.379119635,-0.348143935,-0.10991627],[0.238445863,0.09127563,0.3705417,0.009976327,-0.374842525,0.401142359,-0.0158351064,-0.297236919,0.219227418,0.152137026]],[[-0.214524209,0.351123333,0.366397262,-0.330050468,-0.012311995,-0.111328423,-0.09958261,0.0419380069,0.453143835,0.0006636977],[0.09335333,-0.341667056,-0.259439349,-0.223727286,0.002932489,0.1250007,-0.273216844,0.279103875,-0.119379938,0.178564653],[-0.166101754,-0.345316648,0.4863739,0.313557744,-0.4242866,-0.489922285,0.453912258,-0.226288617,-0.191528261,0.032638967],[-0.318196535,0.444850326,-0.27064538,-0.009207189,0.410617828,-0.407379627,0.0286883712,0.42358768,0.0535487533,0.227604732],[0.4122088,0.478347659,0.328961849,-0.0403493047,-0.394916654,-0.416998267,-0.1293655,-0.08182222,0.06653935,0.000136435032],[-0.130585134,-0.1054371,0.0319996476,-0.4747616,0.39782536,-0.241343319,0.250885367,0.311635256,-0.4909619,0.00401932]]]}